digraph Tree {
node [shape=box, style="filled, rounded", color="black", fontname=helvetica] ;
edge [fontname=helvetica] ;
0 [label="Interest <= 0.5\ngini = 0.5\nsamples = 14000\nvalue = [7026, 6974]", fillcolor="#fffefe"] ;
1 [label="OS <= 1.5\ngini = 0.23\nsamples = 5701\nvalue = [755, 4946]", fillcolor="#57ace9"] ;
0 -> 1 [labeldistance=2.5, labelangle=45, headlabel="True"] ;
2 [label="Age <= 3.5\ngini = 0.1\nsamples = 3875\nvalue = [208, 3667]", fillcolor="#44a3e6"] ;
1 -> 2 ;
3 [label="VisitTime <= 3.5\ngini = 0.08\nsamples = 3713\nvalue = [162, 3551]", fillcolor="#42a1e6"] ;
2 -> 3 ;
4 [label="gini = 0.38\nsamples = 126\nvalue = [32, 94]", fillcolor="#7cbeee"] ;
3 -> 4 ;
5 [label="gini = 0.07\nsamples = 3587\nvalue = [130, 3457]", fillcolor="#40a1e6"] ;
3 -> 5 ;
6 [label="AdsTool <= 1.5\ngini = 0.41\nsamples = 162\nvalue = [46, 116]", fillcolor="#88c4ef"] ;
2 -> 6 ;
7 [label="gini = 0.26\nsamples = 99\nvalue = [15, 84]", fillcolor="#5caeea"] ;
6 -> 7 ;
8 [label="gini = 0.5\nsamples = 63\nvalue = [31, 32]", fillcolor="#f9fcfe"] ;
6 -> 8 ;
9 [label="OS <= 2.5\ngini = 0.42\nsamples = 1826\nvalue = [547, 1279]", fillcolor="#8ec7f0"] ;
1 -> 9 ;
10 [label="Age <= 0.5\ngini = 0.5\nsamples = 987\nvalue = [482, 505]", fillcolor="#f6fbfe"] ;
9 -> 10 ;
11 [label="gini = 0.38\nsamples = 382\nvalue = [98, 284]", fillcolor="#7dbfee"] ;
10 -> 11 ;
12 [label="gini = 0.46\nsamples = 605\nvalue = [384, 221]", fillcolor="#f4caab"] ;
10 -> 12 ;
13 [label="Age <= 3.5\ngini = 0.14\nsamples = 839\nvalue = [65, 774]", fillcolor="#4aa5e7"] ;
9 -> 13 ;
14 [label="gini = 0.12\nsamples = 794\nvalue = [50, 744]", fillcolor="#46a4e7"] ;
13 -> 14 ;
15 [label="gini = 0.44\nsamples = 45\nvalue = [15, 30]", fillcolor="#9ccef2"] ;
13 -> 15 ;
16 [label="OS <= 1.5\ngini = 0.37\nsamples = 8299\nvalue = [6271, 2028]", fillcolor="#edaa79"] ;
0 -> 16 [labeldistance=2.5, labelangle=-45, headlabel="False"] ;
17 [label="Age <= 0.5\ngini = 0.5\nsamples = 3178\nvalue = [1647, 1531]", fillcolor="#fdf6f1"] ;
16 -> 17 ;
18 [label="Gender <= 0.5\ngini = 0.4\nsamples = 1161\nvalue = [323, 838]", fillcolor="#85c3ef"] ;
17 -> 18 ;
19 [label="gini = 0.45\nsamples = 190\nvalue = [124, 66]", fillcolor="#f3c4a2"] ;
18 -> 19 ;
20 [label="gini = 0.33\nsamples = 971\nvalue = [199, 772]", fillcolor="#6cb6ec"] ;
18 -> 20 ;
21 [label="Interest <= 4.5\ngini = 0.45\nsamples = 2017\nvalue = [1324, 693]", fillcolor="#f3c3a1"] ;
17 -> 21 ;
22 [label="gini = 0.5\nsamples = 1114\nvalue = [586, 528]", fillcolor="#fcf3eb"] ;
21 -> 22 ;
23 [label="gini = 0.3\nsamples = 903\nvalue = [738, 165]", fillcolor="#eb9d65"] ;
21 -> 23 ;
24 [label="OS <= 2.5\ngini = 0.18\nsamples = 5121\nvalue = [4624, 497]", fillcolor="#e88f4e"] ;
16 -> 24 ;
25 [label="Age <= 0.5\ngini = 0.09\nsamples = 4479\nvalue = [4267, 212]", fillcolor="#e68743"] ;
24 -> 25 ;
26 [label="gini = 0.2\nsamples = 941\nvalue = [833, 108]", fillcolor="#e89153"] ;
25 -> 26 ;
27 [label="gini = 0.06\nsamples = 3538\nvalue = [3434, 104]", fillcolor="#e6853f"] ;
25 -> 27 ;
28 [label="Age <= 0.5\ngini = 0.49\nsamples = 642\nvalue = [357, 285]", fillcolor="#fae6d7"] ;
24 -> 28 ;
29 [label="gini = 0.44\nsamples = 247\nvalue = [80, 167]", fillcolor="#98ccf1"] ;
28 -> 29 ;
30 [label="gini = 0.42\nsamples = 395\nvalue = [277, 118]", fillcolor="#f0b78d"] ;
28 -> 30 ;
}